#ifndef SVM_MODEL_H
#define SVM_MODEL_H

extern const float svm_model_weights[NUM_CLASSES][NUM_FEATURES];
extern const float svm_model_bias[NUM_CLASSES];

#endif /* SVM_MODEL_H */

const float svm_model_weights[NUM_CLASSES][NUM_FEATURES] = {
    {0.00000000, -0.01235768, 0.00647425, 0.01122915, -0.00678666, -0.06193066, -0.03433226, -0.00742784, 0.00000000, -0.03126644, 0.01243936, 0.02943524, 0.03737147, 0.04282088, -0.00120964, -0.00891341, -0.00489272, 0.00976866, 0.01565703, 0.02154510, -0.10694638, 0.05170697, -0.02456754, -0.00297114, -0.00244636, 0.01576243, 0.00075920, -0.02771904, -0.10670082, 0.03372040, -0.00485628, 0.00000000, 0.00000000, 0.04436014, 0.01910608, -0.01105486, -0.12623254, -0.01307955, -0.01502341, 0.00000000, 0.00000000, -0.01419422, 0.06461325, -0.08579812, -0.05608786, -0.02013707, -0.00195975, 0.00000000, 0.00000000, -0.05351706, 0.01274429, -0.05363653, 0.01517350, -0.00670261, -0.05447590, -0.01933553, 0.00000000, -0.01457156, -0.05565971, 0.03238955, -0.04353394, -0.00029726, -0.03727706, -0.02054984},
    {0.00000000, 0.08005310, -0.03625689, 0.00089348, -0.21621015, 0.18801168, -0.04261151, -0.02499778, 0.00000000, -0.98674667, -0.03116881, -0.25971345, -0.02607782, -0.01922177, -0.19327629, 0.00000000, 0.00000000, 0.49128728, 0.02410345, 0.27853101, 0.09121316, -0.03066505, 0.06379813, 0.00000000, 0.00000000, -0.03472089, -0.10636432, 0.12921576, 0.02132412, 0.03454820, -0.17424298, 0.00000000, 0.00000000, -0.05329370, 0.04270091, -0.09332594, 0.04970617, 0.01915941, 0.04591212, 0.00000000, 0.00000000, -0.11277034, -0.01174769, 0.02904363, -0.05649091, -0.13968154, -0.16580848, -0.06012400, 0.00000000, -0.37201244, -0.00251128, 0.14179562, 0.03218561, 0.01130203, -0.14617655, 0.29582262, 0.00000000, -0.03366101, -0.04242730, -0.01732993, 0.06437962, 0.03680555, -0.11340132, 0.10019805},
    {0.00000000, 0.01185813, -0.02564400, 0.02254870, -0.00893969, -0.03839144, -0.01443337, 0.00000000, 0.00000000, 0.03172723, 0.03992046, -0.00646094, 0.03945598, -0.00320084, -0.00143705, -0.00000000, 0.00000000, 0.01689010, 0.00991454, -0.02226928, 0.03986941, -0.03020456, 0.02978918, 0.00000000, 0.00000000, -0.02981368, -0.12545402, -0.11374109, -0.06306886, 0.02731524, 0.02033769, 0.00000000, 0.00000000, -0.04168693, -0.11593827, -0.02266787, -0.02887449, -0.05186865, -0.10505019, 0.00000000, 0.00000000, 0.01641541, 0.03159153, 0.06476686, -0.07500528, -0.06250637, -0.08632596, 0.00000000, -0.00000000, 0.05681034, -0.00984379, 0.05785857, 0.05764062, 0.05103679, 0.04066822, -0.02729805, 0.00000000, 0.04283116, 0.01131528, -0.03870739, -0.00488749, 0.04532825, 0.04684943, 0.00646108},
    {0.00000000, -0.07965799, -0.14771222, 0.01348717, 0.09496398, 0.00701709, 0.05647443, 0.00668771, 0.00000000, -0.13773331, 0.30517398, -0.05172997, 0.10426120, 0.05723731, 0.08679025, 0.00668771, -0.01770858, 0.06363296, -0.29580478, -0.13844884, 0.04952706, -0.03535532, 0.04662682, -0.00455841, 0.00000000, -0.09842192, -0.16670541, -0.07872525, 0.08204576, -0.18733851, -0.35318814, 0.00000000, 0.00000000, -0.08991312, -0.11942378, 0.12385462, -0.15023695, 0.00465696, -0.20352868, 0.00000000, 0.00000000, 0.02283928, -0.09204938, -0.40127151, 0.14765870, 0.16938580, 0.24818246, -0.00000000, 0.00000000, 0.03612611, -0.04173915, -0.01610617, 0.01173895, -0.01988368, 0.12132711, -0.11582632, 0.00000000, 0.03410547, 0.04895714, -0.19037637, 0.10346753, -0.07224309, -0.08286642, -0.11206157},
    {0.00000000, 0.00000000, -0.06058267, -0.07079678, -0.07798275, -0.10186951, -0.09011266, 0.02691427, 0.00000000, 0.02600096, -0.01012466, -0.05492976, -0.14324289, -0.01783683, -0.06178852, 0.02577591, 0.00000000, 0.01786076, 0.06241147, 0.03372743, 0.01872809, 0.05515315, -0.01642487, 0.01202255, 0.00000000, -0.03651908, 0.10352507, 0.02319565, -0.06316828, -0.01083693, 0.12242799, -0.00000000, 0.00000000, 0.04090999, 0.02601835, 0.01426433, 0.05830593, 0.00874782, 0.09919861, 0.00000000, 0.00000000, 0.17380355, -0.04122116, 0.10444513, 0.01145608, 0.05882383, -0.00207335, 0.00000000, 0.00000000, 0.05880277, -0.07078814, -0.03851929, 0.04660367, -0.10694180, -0.15975102, 0.00000000, 0.00000000, -0.02336688, -0.05359782, -0.06814391, -0.03633678, -0.04006163, -0.01367433, -0.00000000},
    {0.00000000, 0.03421635, 0.25273802, -0.01181659, -0.07114854, 0.05072530, 0.21811415, -0.00878749, 0.00000000, -0.00863238, -0.05659296, 0.01655563, -0.04346802, 0.02327509, -0.02331020, -0.00439374, 0.00000000, -0.01722196, 0.12247269, 0.01918864, -0.02874352, -0.21285899, -0.25898514, -0.00000000, 0.00000000, 0.04204492, 0.10010407, -0.02402294, 0.05601484, -0.02665852, -0.33334897, 0.00000000, 0.00000000, -0.02588573, 0.07657741, -0.08565386, -0.06914789, -0.04142564, 0.08552932, 0.00000000, -0.00000000, -0.02065204, -0.13126176, -0.07238181, -0.05102986, 0.01395667, 0.01027597, 0.00000000, 0.00000000, 0.04291115, -0.04327437, -0.04521172, 0.03760865, -0.04196597, -0.09129420, -0.00000000, 0.00000000, 0.05361083, -0.06424092, 0.08320503, -0.03170414, -0.00237578, -0.23906698, 0.00000000},
    {0.00000000, -0.00000000, -0.09692004, -0.08111710, -0.02848689, 0.03641610, -0.07016367, 0.00000000, 0.00000000, -0.06110151, -0.02631872, -0.13648545, -0.08929860, 0.03065215, 0.01880223, 0.00000000, 0.00000000, -0.09329094, 0.12485710, 0.09627799, -0.11954706, -0.24737631, -0.08071186, 0.00000000, 0.00000000, -0.03210598, -0.02731647, -0.02993435, -0.04815067, 0.00089612, -0.13838365, 0.00000000, 0.00000000, 0.12285673, 0.07941148, -0.00004775, 0.00115681, -0.03456065, -0.03430457, 0.00000000, -0.00000000, -0.23056887, 0.13924490, 0.02771381, -0.04108044, -0.07612907, 0.06819482, 0.00610462, 0.00000000, -0.12198715, 0.01262082, 0.17582036, -0.06987120, 0.10439749, 0.04879446, -0.07467394, 0.00000000, -0.00000000, -0.05827907, -0.06450430, -0.01956504, 0.02519815, -0.01406815, -0.03436291},
    {0.00000000, -0.03363283, 0.07931683, 0.06551569, 0.01487200, 0.05780018, 0.08052097, 0.08152152, 0.00000000, -0.04162991, -0.04618356, -0.03416038, 0.20351156, 0.01225094, -0.03629268, 0.07205505, 0.00000000, -0.11020555, -0.08452701, -0.14657927, -0.09881493, 0.01095590, 0.02672166, -0.00149650, 0.00000000, -0.08574734, -0.05250124, -0.04597806, -0.00799955, 0.02965401, 0.06183860, 0.00000000, 0.00000000, 0.13049159, -0.01817885, -0.04938621, -0.00337158, 0.00127199, 0.12682194, 0.00000000, 0.00000000, -0.16582334, 0.04188787, 0.05878358, 0.05840355, 0.08725725, -0.02542330, 0.00000000, 0.00000000, 0.01277302, 0.01410356, 0.03699133, -0.17452292, -0.27025920, 0.00000000, 0.00000000, 0.00000000, -0.06436443, -0.07997767, -0.04722432, -0.01683225, -0.12479483, -0.01064704, -0.00000000},
    {0.00000000, -0.14891242, 0.05479020, -0.03606733, -0.00106835, 0.02847931, -0.15936952, -0.06934314, 0.40977743, 0.03030280, 0.02193292, -0.00532186, -0.02456962, 0.02532983, 0.04913342, 0.00000000, -0.13940397, 0.02685701, 0.07254295, 0.01587313, 0.00368621, 0.06048201, 0.05853247, 0.00000000, -0.19309249, -0.03355231, -0.01492745, 0.05567695, -0.01751266, -0.02081518, -0.06610698, 0.00000000, 0.00000000, -0.12403405, -0.05230692, 0.10675616, -0.01738200, 0.01988163, -0.35551752, 0.00000000, 0.00000000, 0.09078949, 0.03522548, 0.00180284, 0.05787706, -0.00647633, 0.01771588, -0.03499547, 0.00000000, -0.13145124, 0.06492446, -0.08090756, -0.08144785, 0.04949827, 0.00475821, 0.03333357, 0.00000000, -0.02985368, -0.13081285, -0.04016352, 0.02561285, -0.09547836, -0.02821218, 0.14358626},
    {0.00000000, -0.47037489, -0.06516589, 0.14131583, -0.02514475, -0.05883302, -0.02890516, -0.04007366, 0.00000000, 0.02813769, 0.13934293, 0.12416262, -0.10957380, -0.09378058, 0.07345449, -0.01342141, -0.08243330, 0.08161134, -0.00367507, 0.09186261, 0.08811999, 0.27034283, -0.02326518, -0.26650363, -0.04121665, -0.16064000, 0.21423355, 0.08547690, -0.16103619, 0.20508842, 0.03674626, 0.00000000, 0.00000000, -0.73187625, -0.20988867, 0.20127895, -0.09154242, -0.09196940, 0.00337050, 0.00000000, 0.00000000, -0.10935610, -0.13645124, -0.57134961, -0.16540708, -0.01331940, -0.14630966, 0.00000000, 0.00000000, -0.03843435, 0.02193167, -0.06317785, -0.14455104, -0.24676372, -0.04803022, 0.18196486, 0.00000000, -0.21320524, 0.04303213, -0.12613649, 0.12349149, -0.04879331, -0.14384583, -0.14623484},
};

const float svm_model_bias[NUM_CLASSES] = {-0.00522728, -0.97672319, -0.00502025, -0.00410576, -0.00156044, -0.02965253, -0.00924312, -0.00183582, -1.12806236, -0.19900924};
